digraph Tree {
node [shape=box] ;
0 [label="X[0] <= 0.32\nentropy = 0.988\nsamples = 1097\nvalue = [618, 479]"] ;
1 [label="X[1] <= 6.699\nentropy = 0.688\nsamples = 512\nvalue = [94, 418]"] ;
0 -> 1 [labeldistance=2.5, labelangle=45, headlabel="True"] ;
2 [label="X[2] <= 6.739\nentropy = 0.291\nsamples = 412\nvalue = [21, 391]"] ;
1 -> 2 ;
3 [label="X[1] <= 6.015\nentropy = 0.079\nsamples = 306\nvalue = [3, 303]"] ;
2 -> 3 ;
4 [label="entropy = 0.0\nsamples = 296\nvalue = [0, 296]"] ;
3 -> 4 ;
5 [label="X[3] <= -4.01\nentropy = 0.881\nsamples = 10\nvalue = [3, 7]"] ;
3 -> 5 ;
6 [label="entropy = 0.0\nsamples = 7\nvalue = [0, 7]"] ;
5 -> 6 ;
7 [label="entropy = 0.0\nsamples = 3\nvalue = [3, 0]"] ;
5 -> 7 ;
8 [label="X[1] <= -3.298\nentropy = 0.657\nsamples = 106\nvalue = [18, 88]"] ;
2 -> 8 ;
9 [label="X[0] <= -0.779\nentropy = 0.089\nsamples = 89\nvalue = [1, 88]"] ;
8 -> 9 ;
10 [label="entropy = 0.0\nsamples = 88\nvalue = [0, 88]"] ;
9 -> 10 ;
11 [label="entropy = 0.0\nsamples = 1\nvalue = [1, 0]"] ;
9 -> 11 ;
12 [label="entropy = 0.0\nsamples = 17\nvalue = [17, 0]"] ;
8 -> 12 ;
13 [label="X[0] <= -3.445\nentropy = 0.841\nsamples = 100\nvalue = [73, 27]"] ;
1 -> 13 ;
14 [label="X[3] <= -1.916\nentropy = 0.222\nsamples = 28\nvalue = [1, 27]"] ;
13 -> 14 ;
15 [label="entropy = 0.0\nsamples = 27\nvalue = [0, 27]"] ;
14 -> 15 ;
16 [label="entropy = 0.0\nsamples = 1\nvalue = [1, 0]"] ;
14 -> 16 ;
17 [label="entropy = 0.0\nsamples = 72\nvalue = [72, 0]"] ;
13 -> 17 ;
18 [label="X[0] <= 2.392\nentropy = 0.482\nsamples = 585\nvalue = [524, 61]"] ;
0 -> 18 [labeldistance=2.5, labelangle=-45, headlabel="False"] ;
19 [label="X[2] <= -1.838\nentropy = 0.795\nsamples = 254\nvalue = [193, 61]"] ;
18 -> 19 ;
20 [label="X[1] <= 5.887\nentropy = 0.811\nsamples = 68\nvalue = [17, 51]"] ;
19 -> 20 ;
21 [label="entropy = 0.0\nsamples = 51\nvalue = [0, 51]"] ;
20 -> 21 ;
22 [label="entropy = 0.0\nsamples = 17\nvalue = [17, 0]"] ;
20 -> 22 ;
23 [label="X[0] <= 0.76\nentropy = 0.302\nsamples = 186\nvalue = [176, 10]"] ;
19 -> 23 ;
24 [label="X[3] <= -0.022\nentropy = 0.691\nsamples = 54\nvalue = [44, 10]"] ;
23 -> 24 ;
25 [label="X[2] <= -1.426\nentropy = 0.172\nsamples = 39\nvalue = [38, 1]"] ;
24 -> 25 ;
26 [label="X[1] <= 5.73\nentropy = 0.918\nsamples = 3\nvalue = [2, 1]"] ;
25 -> 26 ;
27 [label="entropy = 0.0\nsamples = 1\nvalue = [0, 1]"] ;
26 -> 27 ;
28 [label="entropy = 0.0\nsamples = 2\nvalue = [2, 0]"] ;
26 -> 28 ;
29 [label="entropy = 0.0\nsamples = 36\nvalue = [36, 0]"] ;
25 -> 29 ;
30 [label="X[2] <= 1.952\nentropy = 0.971\nsamples = 15\nvalue = [6, 9]"] ;
24 -> 30 ;
31 [label="entropy = 0.0\nsamples = 9\nvalue = [0, 9]"] ;
30 -> 31 ;
32 [label="entropy = 0.0\nsamples = 6\nvalue = [6, 0]"] ;
30 -> 32 ;
33 [label="entropy = 0.0\nsamples = 132\nvalue = [132, 0]"] ;
23 -> 33 ;
34 [label="entropy = 0.0\nsamples = 331\nvalue = [331, 0]"] ;
18 -> 34 ;
}
