digraph Tree {
node [shape=box] ;
0 [label="X[0] <= 0.274\ngini = 0.494\nsamples = 1097\nvalue = [611, 486]"] ;
1 [label="X[1] <= 7.565\ngini = 0.3\nsamples = 523\nvalue = [96, 427]"] ;
0 -> 1 [labeldistance=2.5, labelangle=45, headlabel="True"] ;
2 [label="X[0] <= -0.459\ngini = 0.13\nsamples = 444\nvalue = [31, 413]"] ;
1 -> 2 ;
3 [label="X[2] <= 6.746\ngini = 0.072\nsamples = 374\nvalue = [14, 360]"] ;
2 -> 3 ;
4 [label="X[1] <= 7.282\ngini = 0.008\nsamples = 265\nvalue = [1, 264]"] ;
3 -> 4 ;
5 [label="gini = 0.0\nsamples = 261\nvalue = [0, 261]"] ;
4 -> 5 ;
6 [label="X[1] <= 7.349\ngini = 0.375\nsamples = 4\nvalue = [1, 3]"] ;
4 -> 6 ;
7 [label="gini = 0.0\nsamples = 1\nvalue = [1, 0]"] ;
6 -> 7 ;
8 [label="gini = 0.0\nsamples = 3\nvalue = [0, 3]"] ;
6 -> 8 ;
9 [label="X[1] <= -4.8\ngini = 0.21\nsamples = 109\nvalue = [13, 96]"] ;
3 -> 9 ;
10 [label="gini = 0.0\nsamples = 96\nvalue = [0, 96]"] ;
9 -> 10 ;
11 [label="gini = 0.0\nsamples = 13\nvalue = [13, 0]"] ;
9 -> 11 ;
12 [label="X[2] <= 4.841\ngini = 0.368\nsamples = 70\nvalue = [17, 53]"] ;
2 -> 12 ;
13 [label="X[1] <= 5.454\ngini = 0.206\nsamples = 60\nvalue = [7, 53]"] ;
12 -> 13 ;
14 [label="X[2] <= 2.617\ngini = 0.036\nsamples = 54\nvalue = [1, 53]"] ;
13 -> 14 ;
15 [label="gini = 0.0\nsamples = 52\nvalue = [0, 52]"] ;
14 -> 15 ;
16 [label="X[1] <= -0.719\ngini = 0.5\nsamples = 2\nvalue = [1, 1]"] ;
14 -> 16 ;
17 [label="gini = 0.0\nsamples = 1\nvalue = [0, 1]"] ;
16 -> 17 ;
18 [label="gini = 0.0\nsamples = 1\nvalue = [1, 0]"] ;
16 -> 18 ;
19 [label="gini = 0.0\nsamples = 6\nvalue = [6, 0]"] ;
13 -> 19 ;
20 [label="gini = 0.0\nsamples = 10\nvalue = [10, 0]"] ;
12 -> 20 ;
21 [label="X[0] <= -4.116\ngini = 0.292\nsamples = 79\nvalue = [65, 14]"] ;
1 -> 21 ;
22 [label="gini = 0.0\nsamples = 14\nvalue = [0, 14]"] ;
21 -> 22 ;
23 [label="gini = 0.0\nsamples = 65\nvalue = [65, 0]"] ;
21 -> 23 ;
24 [label="X[2] <= -4.386\ngini = 0.184\nsamples = 574\nvalue = [515, 59]"] ;
0 -> 24 [labeldistance=2.5, labelangle=-45, headlabel="False"] ;
25 [label="X[0] <= 3.304\ngini = 0.389\nsamples = 34\nvalue = [9, 25]"] ;
24 -> 25 ;
26 [label="gini = 0.0\nsamples = 25\nvalue = [0, 25]"] ;
25 -> 26 ;
27 [label="gini = 0.0\nsamples = 9\nvalue = [9, 0]"] ;
25 -> 27 ;
28 [label="X[0] <= 1.597\ngini = 0.118\nsamples = 540\nvalue = [506, 34]"] ;
24 -> 28 ;
29 [label="X[2] <= -2.272\ngini = 0.34\nsamples = 143\nvalue = [112, 31]"] ;
28 -> 29 ;
30 [label="X[1] <= 5.657\ngini = 0.298\nsamples = 22\nvalue = [4, 18]"] ;
29 -> 30 ;
31 [label="gini = 0.0\nsamples = 18\nvalue = [0, 18]"] ;
30 -> 31 ;
32 [label="gini = 0.0\nsamples = 4\nvalue = [4, 0]"] ;
30 -> 32 ;
33 [label="X[3] <= 0.23\ngini = 0.192\nsamples = 121\nvalue = [108, 13]"] ;
29 -> 33 ;
34 [label="X[3] <= 0.039\ngini = 0.021\nsamples = 96\nvalue = [95, 1]"] ;
33 -> 34 ;
35 [label="gini = 0.0\nsamples = 91\nvalue = [91, 0]"] ;
34 -> 35 ;
36 [label="X[3] <= 0.165\ngini = 0.32\nsamples = 5\nvalue = [4, 1]"] ;
34 -> 36 ;
37 [label="gini = 0.0\nsamples = 1\nvalue = [0, 1]"] ;
36 -> 37 ;
38 [label="gini = 0.0\nsamples = 4\nvalue = [4, 0]"] ;
36 -> 38 ;
39 [label="X[2] <= 1.919\ngini = 0.499\nsamples = 25\nvalue = [13, 12]"] ;
33 -> 39 ;
40 [label="X[1] <= 3.648\ngini = 0.142\nsamples = 13\nvalue = [1, 12]"] ;
39 -> 40 ;
41 [label="gini = 0.0\nsamples = 12\nvalue = [0, 12]"] ;
40 -> 41 ;
42 [label="gini = 0.0\nsamples = 1\nvalue = [1, 0]"] ;
40 -> 42 ;
43 [label="gini = 0.0\nsamples = 12\nvalue = [12, 0]"] ;
39 -> 43 ;
44 [label="X[0] <= 2.037\ngini = 0.015\nsamples = 397\nvalue = [394, 3]"] ;
28 -> 44 ;
45 [label="X[2] <= -2.648\ngini = 0.127\nsamples = 44\nvalue = [41, 3]"] ;
44 -> 45 ;
46 [label="X[1] <= 6.473\ngini = 0.375\nsamples = 4\nvalue = [1, 3]"] ;
45 -> 46 ;
47 [label="gini = 0.0\nsamples = 3\nvalue = [0, 3]"] ;
46 -> 47 ;
48 [label="gini = 0.0\nsamples = 1\nvalue = [1, 0]"] ;
46 -> 48 ;
49 [label="gini = 0.0\nsamples = 40\nvalue = [40, 0]"] ;
45 -> 49 ;
50 [label="gini = 0.0\nsamples = 353\nvalue = [353, 0]"] ;
44 -> 50 ;
}
